digraph Tree {
node [shape=box, style="filled, rounded", color="black", fontname="helvetica"] ;
edge [fontname="helvetica"] ;
0 [label="company capitalization <= 1.115\ngini = 0.667\nsamples = 150\nvalue = [50, 50, 50]\nclass = high-risk", fillcolor="#ffffff"] ;
1 [label="company capitalization <= 0.125\ngini = 0.5\nsamples = 100\nvalue = [50, 0, 50]\nclass = high-risk", fillcolor="#ffffff"] ;
0 -> 1 [labeldistance=2.5, labelangle=45, headlabel="True"] ;
2 [label="dividend yield <= 0.14\ngini = 0.165\nsamples = 55\nvalue = [50, 0, 5]\nclass = high-risk", fillcolor="#e88e4d"] ;
1 -> 2 ;
3 [label="gini = 0.0\nsamples = 4\nvalue = [0, 0, 4]\nclass = low-risk", fillcolor="#8139e5"] ;
2 -> 3 ;
4 [label="company age <= 0.9\ngini = 0.038\nsamples = 51\nvalue = [50, 0, 1]\nclass = high-risk", fillcolor="#e6843d"] ;
2 -> 4 ;
5 [label="gini = 0.0\nsamples = 50\nvalue = [50, 0, 0]\nclass = high-risk", fillcolor="#e58139"] ;
4 -> 5 ;
6 [label="gini = 0.0\nsamples = 1\nvalue = [0, 0, 1]\nclass = low-risk", fillcolor="#8139e5"] ;
4 -> 6 ;
7 [label="gini = 0.0\nsamples = 45\nvalue = [0, 0, 45]\nclass = low-risk", fillcolor="#8139e5"] ;
1 -> 7 ;
8 [label="gini = 0.0\nsamples = 50\nvalue = [0, 50, 0]\nclass = medium-risk", fillcolor="#39e581"] ;
0 -> 8 [labeldistance=2.5, labelangle=-45, headlabel="False"] ;
}